{
  "input_node_count": 5,
  "hidden_node_count": 8,
  "output_node_count": 2,
  "weights_ih": {
    "mathjs": "DenseMatrix",
    "data": [
      [
        0.8114916776486342,
        -0.9825010411615471,
        -1.1798228026399138,
        0.20089333104778975,
        -0.7756071845191312
      ],
      [
        -0.3278753765012729,
        -0.982146471962588,
        0.9200871068376533,
        -0.05463748281632147,
        -0.7184123565821404
      ],
      [
        -0.8088109206009393,
        0.7631378233612687,
        -0.4340367745449973,
        -0.9679384764771995,
        0.22422553539207365
      ],
      [
        -0.89858658538068,
        0.7149290989436945,
        -0.3616848272304691,
        -0.18221326088341389,
        0.8990120811387415
      ],
      [
        -0.10827410260131433,
        0.512544722657924,
        -0.24560727771123525,
        -0.7524562077659654,
        -0.15383517768132346
      ],
      [
        -0.6498949972412696,
        -0.9961470499485301,
        0.4625914421402278,
        0.6459152103670388,
        -0.6266418788720068
      ],
      [
        0.8183221766506447,
        -0.9354323825223227,
        -0.4641316974906443,
        0.04961216926284562,
        -0.6973996352888117
      ],
      [
        0.537027650776757,
        -0.018928291827439027,
        -0.5588385254423682,
        0.68012838873409,
        -0.17956687240875785
      ]
    ],
    "size": [
      8,
      5
    ]
  },
  "weights_ho": {
    "mathjs": "DenseMatrix",
    "data": [
      [
        0.5342634753595263,
        0.5608121984694221,
        0.3474789755757352,
        -0.4580136382591562,
        -0.517429118221617,
        -0.5583437007101253,
        0.18465644918193774,
        0.5576743154443285
      ],
      [
        -0.670471638512657,
        0.9310480794174598,
        -0.3283827705821847,
        0.3871163045371593,
        -1.1259799435757019,
        0.6374113123651544,
        0.6598272813248001,
        0.06435332814620816
      ]
    ],
    "size": [
      2,
      8
    ]
  },
  "weights_bias_h": {
    "mathjs": "DenseMatrix",
    "data": [
      [
        0.4498363787243279
      ],
      [
        -0.5786837606730589
      ],
      [
        -0.5366162609550507
      ],
      [
        -0.610734308427816
      ],
      [
        -0.09429163819646508
      ],
      [
        -0.6428469869033206
      ],
      [
        0.41124896799872646
      ],
      [
        -0.2651973118344829
      ]
    ],
    "size": [
      8,
      1
    ]
  },
  "weights_bias_o": {
    "mathjs": "DenseMatrix",
    "data": [
      [
        -0.6818183187719945
      ],
      [
        -0.3703780314218267
      ]
    ],
    "size": [
      2,
      1
    ]
  },
  "learning_rate": 0.1
}
